1.574157923460006714e-01 -7.469898462295532227e-01 3.755742013454437256e-01 -2.301848083734512329e-01 7.743231654167175293e-01 -4.323704242706298828e-01 1.887435019016265869e-01 -5.293432995676994324e-02 3.454125523567199707e-01 1.851346157491207123e-02 -6.243642568588256836e-01 -4.031731784343719482e-01 9.658845514059066772e-02 9.945753216743469238e-01 2.727908492088317871e-01 2.941952049732208252e-01 3.837766051292419434e-01 1.063808917999267578e+00 3.049179315567016602e-01 9.784222841262817383e-01 -7.647470235824584961e-01 1.875049173831939697e-01 4.377153217792510986e-01 1.147472023963928223e+00 6.133069992065429688e-01 8.447484672069549561e-02 4.637166559696197510e-01 9.829468131065368652e-01 -2.174888178706169128e-02 5.555348992347717285e-01 -4.802069962024688721e-01 6.690865159034729004e-01
-2.286009192466735840e-01 -5.477749109268188477e-01 6.629565358161926270e-01 -4.661023318767547607e-01 2.732251286506652832e-01 5.587541311979293823e-02 6.681185960769653320e-01 -1.078147515654563904e-01 3.808158934116363525e-01 2.566431462764739990e-02 5.383561253547668457e-01 2.176188379526138306e-01 -2.367194443941116333e-01 -2.380695492029190063e-01 -3.142773509025573730e-01 3.076317906379699707e-01 -3.011586666107177734e-01 2.402669340372085571e-01 -5.995849370956420898e-01 7.191616296768188477e-02 1.179408282041549683e-01 -3.606482148170471191e-01 5.433217883110046387e-01 -4.227166175842285156e-01 -4.629455804824829102e-01 5.349536538124084473e-01 -6.233784556388854980e-01 -5.519527196884155273e-01 1.290722489356994629e-01 -5.555198192596435547e-01 8.903008699417114258e-02 1.556749492883682251e-01
-4.694770574569702148e-01 2.990456856787204742e-02 8.947678208351135254e-01 2.394864410161972046e-01 -4.350705146789550781e-01 -2.839402854442596436e-01 -1.430108428001403809e+00 -2.682550847530364990e-01 6.906977891921997070e-01 1.131098389625549316e+00 6.944870948791503906e-01 -3.096399605274200439e-01 -2.352031134068965912e-02 -1.961983740329742432e-01 -3.008617460727691650e-01 4.955511093139648438e-01 -4.228410124778747559e-01 -2.381549179553985596e-01 3.486679866909980774e-02 -5.385681986808776855e-01 -6.501389145851135254e-01 3.942851126194000244e-01 5.565298795700073242e-01 -6.782565116882324219e-01 1.103110313415527344e+00 -6.318179368972778320e-01 -7.746224403381347656e-01 7.242909669876098633e-01 -4.572190344333648682e-01 -4.188627377152442932e-02 5.419775843620300293e-01 -3.888889849185943604e-01
-8.352026939392089844e-01 3.573614060878753662e-01 -4.087232053279876709e-01 6.655417680740356445e-01 -3.297654688358306885e-01 6.602416634559631348e-01 -6.647679954767227173e-02 3.311344087123870850e-01 -4.762932360172271729e-01 3.709313571453094482e-01 9.110440015792846680e-01 5.092834234237670898e-01 -5.376663208007812500e-01 -5.286962389945983887e-01 -4.219804108142852783e-01 -5.764448642730712891e-01 -7.170934677124023438e-01 2.741681337356567383e-01 -9.257668852806091309e-01 -4.655817747116088867e-01 2.882085442543029785e-01 -7.882830500602722168e-01 -4.244907200336456299e-01 6.259366869926452637e-01 3.490515649318695068e-01 3.347657024860382080e-01 5.704396963119506836e-01 7.462637424468994141e-01 5.751404166221618652e-01 -8.239815235137939453e-01 -6.474635004997253418e-01 -3.101356625556945801e-01
