float weights[] = {[0.15741579234600067, -0.7469898462295532, 0.3755742013454437, -0.23018480837345123, 0.7743231654167175, -0.4323704242706299, 0.1887435019016266, -0.05293432995676994, 0.34541255235671997, 0.01851346157491207, -0.6243642568588257, -0.40317317843437195, 0.09658845514059067, 0.9945753216743469, 0.2727908492088318, 0.2941952049732208, 0.38377660512924194, 1.0638089179992676, 0.30491793155670166, 0.9784222841262817, -0.7647470235824585, 0.18750491738319397, 0.4377153217792511, 1.1474720239639282, 0.613306999206543, 0.0844748467206955, 0.46371665596961975, 0.9829468131065369, -0.02174888178706169, 0.5555348992347717, -0.48020699620246887, 0.6690865159034729], [-0.22860091924667358, -0.5477749109268188, 0.6629565358161926, -0.46610233187675476, 0.2732251286506653, 0.05587541311979294, 0.6681185960769653, -0.10781475156545639, 0.38081589341163635, 0.0256643146276474, 0.5383561253547668, 0.21761883795261383, -0.23671944439411163, -0.238069549202919, -0.3142773509025574, 0.30763179063796997, -0.3011586666107178, 0.24026693403720856, -0.5995849370956421, 0.07191616296768188, 0.11794082820415497, -0.3606482148170471, 0.5433217883110046, -0.4227166175842285, -0.4629455804824829, 0.5349536538124084, -0.6233784556388855, -0.5519527196884155, 0.12907224893569946, -0.5555198192596436, 0.08903008699417114, 0.15567494928836823], [-0.4694770574569702, 0.029904568567872047, 0.8947678208351135, 0.2394864410161972, -0.4350705146789551, -0.28394028544425964, -1.4301084280014038, -0.2682550847530365, 0.6906977891921997, 1.1310983896255493, 0.6944870948791504, -0.30963996052742004, -0.02352031134068966, -0.19619837403297424, -0.30086174607276917, 0.49555110931396484, -0.42284101247787476, -0.23815491795539856, 0.03486679866909981, -0.5385681986808777, -0.6501389145851135, 0.3942851126194, 0.5565298795700073, -0.6782565116882324, 1.1031103134155273, -0.6318179368972778, -0.7746224403381348, 0.7242909669876099, -0.45721903443336487, -0.04188627377152443, 0.54197758436203, -0.38888898491859436], [-0.835202693939209, 0.35736140608787537, -0.40872320532798767, 0.6655417680740356, -0.3297654688358307, 0.6602416634559631, -0.06647679954767227, 0.3311344087123871, -0.4762932360172272, 0.37093135714530945, 0.9110440015792847, 0.5092834234237671, -0.5376663208007812, -0.5286962389945984, -0.4219804108142853, -0.5764448642730713, -0.7170934677124023, 0.27416813373565674, -0.9257668852806091, -0.4655817747116089, 0.288208544254303, -0.7882830500602722, -0.42449072003364563, 0.6259366869926453, 0.3490515649318695, 0.3347657024860382, 0.5704396963119507, 0.7462637424468994, 0.5751404166221619, -0.823981523513794, -0.6474635004997253, -0.3101356625556946], };